from flask import Flask, render_template, request, jsonify
import os
import cv2
import numpy as np

# Function to detect humans using OpenCV (HOG features)
def detect_humans(image):
    hog = cv2.HOGDescriptor()
    hog.setSVMDetector(cv2.HOGDescriptor_getDefaultPeopleDetector())
    gray_image = cv2.cvtColor(image, cv2.COLOR_BGR2GRAY)
    boxes, weights = hog.detectMultiScale(gray_image, winStride=(8, 8), padding=(8, 8), scale=1.05)
    human_count = len(boxes)
    return human_count

app = Flask(__name__)

@app.route('/')
def index():
    return render_template('index.html')

@app.route('/upload', methods=['POST'])
def upload_image():
    if 'file' not in request.files:
        return jsonify(False)  # Return False if no file is part of the request

    file = request.files['file']
    if file.filename == '':
        return jsonify(False)  # Return False if no file is selected

    # Save the file
    image_path = os.path.join('uploads', file.filename)
    file.save(image_path)

    # Process the image
    image = cv2.imread(image_path)
    if image is None:
        return jsonify(False)  # Return False if the image cannot be loaded

    # Detect humans in the image
    human_count = detect_humans(image)

    # Return True if humans are detected, False otherwise
    return jsonify(human_count > 0)

if __name__ == '__main__':
    app.run(debug=True)
